{"learner":{"attributes":{},"feature_names":[],"feature_types":[],"gradient_booster":{"model":{"gbtree_model_param":{"num_parallel_tree":"1","num_trees":"10"},"iteration_indptr":[0,1,2,3,4,5,6,7,8,9,10],"tree_info":[0,0,0,0,0,0,0,0,0,0],"trees":[{"base_weights":[1.4237248E-8,9.53784E-1,-9.230166E-2,1.9989643E-1,3.8922352E-1,7.5775725E-1,-1.9240032E-1,6.999959E-2,1.4938476E-2,5.5092655E-2,3.6510548E-1,5.6541618E-2,-4.426885E-1,-7.982965E-2,2.0191523E-1,-2.8274447E-1,1.550304E-1,-1.6527869E-1,-7.395753E-1,7.887853E-2,2.8313433E-3,-1.2001632E-1,5.342122E-1,1.2542199E-1,-6.314155E-1,-1.1183105E0,-2.4900922E-1,2.763658E-1,-9.3789555E-2,-1.3661088E-1,2.3363756E-1,-6.942752E-2,2.6562032E-1,-2.3623613E-1,9.2533484E-2,-4.472873E-1,-2.0771258E-1,-2.35061E-1,2.7602335E-2],"categories":[],"categories_nodes":[],"categories_segments":[],"categories_sizes":[],"default_left":[0,0,0,0,0,0,0,0,0,0,0,0,0,0,0,0,0,0,0,0,0,0,0,0,0,0,0,0,0,0,0,0,0,0,0,0,0,0,0],"id":0,"left_children":[1,3,5,7,-1,9,11,-1,-1,13,-1,15,17,-1,19,-1,21,23,25,-1,-1,27,29,31,33,35,37,-1,-1,-1,-1,-1,-1,-1,-1,-1,-1,-1,-1],"loss_changes":[8.979657E0,2.0721617E0,8.059141E0,8.456156E-3,0E0,3.160016E0,5.2588377E0,0E0,0E0,2.895202E-1,0E0,4.376994E0,3.336855E0,0E0,4.44932E-2,0E0,4.2358227E0,3.195838E0,3.4374237E0,0E0,0E0,5.101398E0,4.4691753E0,4.272848E0,1.5627735E0,7.136564E-1,1.8949211E0,0E0,0E0,0E0,0E0,0E0,0E0,0E0,0E0,0E0,0E0,0E0,0E0],"parents":[2147483647,0,0,1,1,2,2,3,3,5,5,6,6,9,9,11,11,12,12,14,14,16,16,17,17,18,18,21,21,22,22,23,23,24,24,25,25,26,26],"right_children":[2,4,6,8,-1,10,12,-1,-1,14,-1,16,18,-1,20,-1,22,24,26,-1,-1,28,30,32,34,36,38,-1,-1,-1,-1,-1,-1,-1,-1,-1,-1,-1,-1],"split_conditions":[-1.6048073E0,-6.1962664E-1,-1.3484772E0,-8.37308E-1,3.8922352E-1,9.093323E-2,-1.1128625E-1,6.999959E-2,1.4938476E-2,-1.5891153E0,3.6510548E-1,-1.3190007E0,1.0405948E-1,-7.982965E-2,-1.3282241E0,-2.8274447E-1,-5.036737E-1,2.7314955E-1,-7.926106E-3,7.887853E-2,2.8313433E-3,-7.276694E-1,-8.309259E-1,2.519334E-1,8.709609E-1,1.6945335E-1,6.798045E-2,2.763658E-1,-9.3789555E-2,-1.3661088E-1,2.3363756E-1,-6.942752E-2,2.6562032E-1,-2.3623613E-1,9.2533484E-2,-4.472873E-1,-2.0771258E-1,-2.35061E-1,2.7602335E-2],"split_indices":[3,4,5,4,0,3,1,0,0,0,0,2,9,0,1,0,1,8,3,0,0,3,5,0,1,5,7,0,0,0,0,0,0,0,0,0,0,0,0],"split_type":[0,0,0,0,0,0,0,0,0,0,0,0,0,0,0,0,0,0,0,0,0,0,0,0,0,0,0,0,0,0,0,0,0,0,0,0,0,0,0],"sum_hessian":[1E2,8E0,9.2E1,3E0,5E0,9E0,8.3E1,2E0,1E0,4E0,5E0,4.2E1,4.1E1,1E0,3E0,3E0,3.9E1,2.2E1,1.9E1,2E0,1E0,2.3E1,1.6E1,1.4E1,8E0,1E1,9E0,3E0,2E1,3E0,1.3E1,1E1,4E0,7E0,1E0,4E0,6E0,3E0,6E0],"tree_param":{"num_deleted":"0","num_feature":"10","num_nodes":"39","size_leaf_vector":"1"}},{"base_weights":[2.7760127E-4,7.203334E-1,-6.94082E-2,1.6116202E-1,9.730587E-1,5.671286E-1,-1.4436011E-1,5.5999678E-2,1.2697704E-2,3.2569775E-1,6.1508466E-2,3.894091E-2,2.738291E-1,3.3566333E-2,-3.5052052E-1,-6.78552E-2,1.6176814E-1,-6.669013E-2,7.130578E-1,3.4769993E-2,-5.445031E-1,4.2940177E-2,7.773781E-2,9.462388E-1,-1.4289774E-1,6.066365E-2,2.753783E-1,5.1607555E-1,-2.899637E-1,-7.5080377E-1,-7.1401335E-2,1.6916439E-2,2.4066423E-3,7.890317E-2,3.469043E-1,-9.291339E-2,6.436599E-2,2.0270516E-1,-4.22949E-2,9.397488E-2,-1.5211809E-1,-6.288087E-2,-2.671383E-1,6.3567884E-2,-1.4354774E-1],"categories":[],"categories_nodes":[],"categories_segments":[],"categories_sizes":[],"default_left":[0,0,0,0,0,0,0,0,0,0,0,0,0,0,0,0,0,0,0,0,0,0,0,0,0,0,0,0,0,0,0,0,0,0,0,0,0,0,0,0,0,0,0,0,0],"id":1,"left_children":[1,3,5,7,9,11,13,-1,-1,-1,-1,15,-1,17,19,-1,21,23,25,27,29,31,-1,33,35,-1,-1,37,39,41,43,-1,-1,-1,-1,-1,-1,-1,-1,-1,-1,-1,-1,-1,-1],"loss_changes":[5.117941E0,1.1150312E0,4.518868E0,4.2222515E-3,2.9629326E-1,1.7900579E0,3.0930023E0,0E0,0E0,0E0,0E0,1.9941214E-1,0E0,3.1812308E0,2.9337783E0,0E0,3.5148434E-2,3.3001237E0,4.4232464E-1,2.337789E0,2.4840236E0,9.563742E-4,0E0,1.2652516E-1,2.3919291E0,0E0,0E0,7.244921E-1,1.3374364E0,1.1738424E0,1.1393285E0,0E0,0E0,0E0,0E0,0E0,0E0,0E0,0E0,0E0,0E0,0E0,0E0,0E0,0E0],"parents":[2147483647,0,0,1,1,2,2,3,3,4,4,5,5,6,6,11,11,13,13,14,14,16,16,17,17,18,18,19,19,20,20,21,21,23,23,24,24,27,27,28,28,29,29,30,30],"right_children":[2,4,6,8,10,12,14,-1,-1,-1,-1,16,-1,18,20,-1,22,24,26,28,30,32,-1,34,36,-1,-1,38,40,42,44,-1,-1,-1,-1,-1,-1,-1,-1,-1,-1,-1,-1,-1,-1],"split_conditions":[-1.6048073E0,-6.1962664E-1,-1.3484772E0,-8.37308E-1,-8.548634E-2,9.093323E-2,-4.4222903E-2,5.5999678E-2,1.2697704E-2,3.2569775E-1,6.1508466E-2,-1.5891153E0,2.738291E-1,1.3290635E0,-5.5174637E-1,-6.78552E-2,-2.4640983E-1,-9.9485844E-1,-5.8079946E-1,-6.3078207E-1,8.394963E-1,-3.7572744E-1,7.773781E-2,-1.556699E0,5.5817026E-1,6.066365E-2,2.753783E-1,6.6753227E-1,-1.031978E0,-4.5702413E-1,1.4229629E0,1.6916439E-2,2.4066423E-3,7.890317E-2,3.469043E-1,-9.291339E-2,6.436599E-2,2.0270516E-1,-4.22949E-2,9.397488E-2,-1.5211809E-1,-6.288087E-2,-2.671383E-1,6.3567884E-2,-1.4354774E-1],"split_indices":[3,4,5,4,1,3,1,0,0,0,0,0,0,7,2,0,0,3,1,9,1,0,0,0,3,0,0,7,0,3,1,0,0,0,0,0,0,0,0,0,0,0,0,0,0],"split_type":[0,0,0,0,0,0,0,0,0,0,0,0,0,0,0,0,0,0,0,0,0,0,0,0,0,0,0,0,0,0,0,0,0,0,0,0,0,0,0,0,0,0,0,0,0],"sum_hessian":[1E2,8E0,9.2E1,3E0,5E0,9E0,8.3E1,2E0,1E0,4E0,1E0,4E0,5E0,4.5E1,3.8E1,1E0,3E0,4E1,5E0,1.3E1,2.5E1,2E0,1E0,2E0,3.8E1,2E0,3E0,5E0,8E0,1.7E1,8E0,1E0,1E0,1E0,1E0,2.6E1,1.2E1,4E0,1E0,2E0,6E0,4E0,1.3E1,5E0,3E0],"tree_param":{"num_deleted":"0","num_feature":"10","num_nodes":"45","size_leaf_vector":"1"}},{"base_weights":[1.192212E-2,5.548893E-1,-4.0751286E-2,1.2998775E-1,7.4567544E-1,4.272935E-1,-9.598577E-2,5.337166E-2,1.6413994E-2,2.475303E-1,5.228219E-2,3.3099774E-2,2.0537181E-1,3.943777E-2,-2.5325492E-1,-5.767692E-2,1.3750291E-1,-1.9822146E-1,1.0365326E-1,3.164377E-2,-3.9692134E-1,3.649915E-2,6.6077136E-2,1.7571309E-1,-1.9285752E-1,-9.067309E-2,2.4326445E-1,-5.5887145E-1,-8.1913985E-2,1.4378972E-2,2.045646E-3,7.963073E-2,-1.5162979E-1,-6.4082175E-2,1.1709294E-1,-7.391864E-2,-2.2588955E-1,2.8465142E-2,-1.11249484E-1],"categories":[],"categories_nodes":[],"categories_segments":[],"categories_sizes":[],"default_left":[0,0,0,0,0,0,0,0,0,0,0,0,0,0,0,0,0,0,0,0,0,0,0,0,0,0,0,0,0,0,0,0,0,0,0,0,0,0,0],"id":2,"left_children":[1,3,5,7,9,11,13,-1,-1,-1,-1,15,-1,17,19,-1,21,-1,23,25,27,29,-1,31,-1,33,-1,35,37,-1,-1,-1,-1,-1,-1,-1,-1,-1,-1],"loss_changes":[2.9112055E0,6.3265944E-1,2.4452698E0,4.694134E-3,1.2850952E-1,9.9151933E-1,1.7990153E0,0E0,0E0,0E0,0E0,1.4407526E-1,0E0,2.136746E0,1.6088448E0,0E0,2.5394745E-2,0E0,2.4260798E0,1.4079199E0,1.2806234E0,6.9098035E-4,0E0,2.578728E0,0E0,8.520529E-1,0E0,8.455162E-1,5.459859E-1,0E0,0E0,0E0,0E0,0E0,0E0,0E0,0E0,0E0,0E0],"parents":[2147483647,0,0,1,1,2,2,3,3,4,4,5,5,6,6,11,11,13,13,14,14,16,16,18,18,19,19,20,20,21,21,23,23,25,25,27,27,28,28],"right_children":[2,4,6,8,10,12,14,-1,-1,-1,-1,16,-1,18,20,-1,22,-1,24,26,28,30,-1,32,-1,34,-1,36,38,-1,-1,-1,-1,-1,-1,-1,-1,-1,-1],"split_conditions":[-1.6048073E0,-6.1962664E-1,-1.3484772E0,-2.2957817E-1,-8.548634E-2,9.093323E-2,-4.4222903E-2,5.337166E-2,1.6413994E-2,2.475303E-1,5.228219E-2,-1.5891153E0,2.0537181E-1,-1.3190007E0,-5.5174637E-1,-5.767692E-2,-2.4640983E-1,-1.9822146E-1,1.7083491E0,-6.290078E-1,7.9164E-1,-3.7572744E-1,6.6077136E-2,1.2760465E0,-1.9285752E-1,8.146137E-1,2.4326445E-1,9.0433985E-2,1.4229629E0,1.4378972E-2,2.045646E-3,7.963073E-2,-1.5162979E-1,-6.4082175E-2,1.1709294E-1,-7.391864E-2,-2.2588955E-1,2.8465142E-2,-1.11249484E-1],"split_indices":[3,4,5,0,1,3,1,0,0,0,0,0,0,2,2,0,0,0,3,2,1,0,0,8,0,6,0,8,1,0,0,0,0,0,0,0,0,0,0],"split_type":[0,0,0,0,0,0,0,0,0,0,0,0,0,0,0,0,0,0,0,0,0,0,0,0,0,0,0,0,0,0,0,0,0,0,0,0,0,0,0],"sum_hessian":[1E2,8E0,9.2E1,3E0,5E0,9E0,8.3E1,1E0,2E0,4E0,1E0,4E0,5E0,4.5E1,3.8E1,1E0,3E0,3E0,4.2E1,1.3E1,2.5E1,2E0,1E0,3.9E1,3E0,1.2E1,1E0,1.6E1,9E0,1E0,1E0,3.5E1,4E0,1E1,2E0,7E0,9E0,6E0,3E0],"tree_param":{"num_deleted":"0","num_feature":"10","num_nodes":"39","size_leaf_vector":"1"}},{"base_weights":[8.844486E-3,4.2948893E-1,-3.1958144E-2,1.9824855E-1,2.0069319E-1,-1.6847E-1,1.0523368E-1,7.936346E-2,1.3131197E-2,3.020462E-1,-2.583615E-1,-8.853688E-2,2.7929324E-1,2.93969E-1,-8.722003E-2,-1.187114E-2,-3.9063048E-1,-3.4406304E-1,2.7805346E-1,-2.6387933E-1,4.2828035E-1,5.8061685E-2,-8.279528E-2,3.025416E-1,-2.5509536E-1,-4.4654098E-1,1.8686368E-1,-5.225198E-1,8.166313E-2,4.000455E-1,-1.3994323E-1,-1.2685789E-1,1.081624E-2,4.756927E-1,-7.0883125E-2,1.4090098E-1,-2.305582E-2,-3.5477463E-2,-1.02274045E-1,6.484851E-2,-1.4542575E-1,9.263834E-2,-8.549689E-3,-1.99506E-1,1.1399723E-1,-4.766952E-2,5.4458436E-2,1.7403556E-1,2.2482866E-2,-6.3643225E-2,6.687686E-4,1.7895229E-1,3.4352727E-2],"categories":[],"categories_nodes":[],"categories_segments":[],"categories_sizes":[],"default_left":[0,0,0,0,0,0,0,0,0,0,0,0,0,0,0,0,0,0,0,0,0,0,0,0,0,0,0,0,0,0,0,0,0,0,0,0,0,0,0,0,0,0,0,0,0,0,0,0,0,0,0,0,0],"id":3,"left_children":[1,3,5,7,-1,9,11,-1,-1,13,15,17,19,-1,21,23,25,27,29,31,33,-1,-1,35,37,39,41,43,45,47,49,-1,-1,51,-1,-1,-1,-1,-1,-1,-1,-1,-1,-1,-1,-1,-1,-1,-1,-1,-1,-1,-1],"loss_changes":[1.7472291E0,3.6579084E-1,1.7594615E0,4.9868584E-2,0E0,2.0659213E0,1.609926E0,0E0,0E0,2.1963809E0,1.2994843E0,2.2501569E0,2.1361573E0,0E0,3.713972E-1,1.2242692E0,9.2293E-1,1.106303E0,5.659064E-1,3.0134687E-1,7.425599E-1,0E0,0E0,4.7994804E-1,6.537217E-2,7.125335E-1,8.757832E-2,1.5387807E0,1.4896289E-1,4.2486203E-1,3.1267826E-2,0E0,0E0,7.607851E-1,0E0,0E0,0E0,0E0,0E0,0E0,0E0,0E0,0E0,0E0,0E0,0E0,0E0,0E0,0E0,0E0,0E0,0E0,0E0],"parents":[2147483647,0,0,1,1,2,2,3,3,5,5,6,6,9,9,10,10,11,11,12,12,14,14,15,15,16,16,17,17,18,18,19,19,20,20,23,23,24,24,25,25,26,26,27,27,28,28,29,29,30,30,33,33],"right_children":[2,4,6,8,-1,10,12,-1,-1,14,16,18,20,-1,22,24,26,28,30,32,34,-1,-1,36,38,40,42,44,46,48,50,-1,-1,52,-1,-1,-1,-1,-1,-1,-1,-1,-1,-1,-1,-1,-1,-1,-1,-1,-1,-1,-1],"split_conditions":[-1.6048073E0,3.888926E-1,6.825898E-2,-5.013091E-1,2.0069319E-1,-7.348136E-1,-3.6235914E-1,7.936346E-2,1.3131197E-2,-6.681056E-1,-5.133255E-1,4.6792722E-1,-7.221624E-1,2.93969E-1,-4.448686E-1,2.7314955E-1,1.400009E0,2.8290337E-1,6.580078E-1,2.6489908E-1,7.0625955E-1,5.8061685E-2,-8.279528E-2,3.399231E-1,-4.0684694E-1,-1.7183564E0,-1.4260349E0,1.3290635E0,-1.7868699E0,1.2959694E0,1.9305848E-1,-1.2685789E-1,1.081624E-2,5.320829E-1,-7.0883125E-2,1.4090098E-1,-2.305582E-2,-3.5477463E-2,-1.02274045E-1,6.484851E-2,-1.4542575E-1,9.263834E-2,-8.549689E-3,-1.99506E-1,1.1399723E-1,-4.766952E-2,5.4458436E-2,1.7403556E-1,2.2482866E-2,-6.3643225E-2,6.687686E-4,1.7895229E-1,3.4352727E-2],"split_indices":[3,4,3,5,0,1,4,0,0,6,2,6,1,0,5,8,2,1,5,4,1,0,0,5,9,9,0,7,0,3,0,0,0,6,0,0,0,0,0,0,0,0,0,0,0,0,0,0,0,0,0,0,0],"split_type":[0,0,0,0,0,0,0,0,0,0,0,0,0,0,0,0,0,0,0,0,0,0,0,0,0,0,0,0,0,0,0,0,0,0,0,0,0,0,0,0,0,0,0,0,0,0,0,0,0,0,0,0,0],"sum_hessian":[1E2,8E0,9.2E1,5E0,3E0,4.6E1,4.6E1,3E0,2E0,7E0,3.9E1,2.2E1,2.4E1,2E0,5E0,1.4E1,2.5E1,1.3E1,9E0,5E0,1.9E1,2E0,3E0,6E0,8E0,2.3E1,2E0,9E0,4E0,7E0,2E0,3E0,2E0,1.8E1,1E0,4E0,2E0,4E0,4E0,1E0,2.2E1,1E0,1E0,8E0,1E0,1E0,3E0,4E0,3E0,1E0,1E0,1.3E1,5E0],"tree_param":{"num_deleted":"0","num_feature":"10","num_nodes":"53","size_leaf_vector":"1"}},{"base_weights":[1.2401364E-2,2.4109311E-1,-3.3482883E-2,7.5725704E-1,2.4022888E-2,-1.6383171E-1,7.5391315E-2,2.5546312E-1,5.7016615E-2,-9.128638E-2,1.11378305E-1,-2.2782393E-1,-1.1111345E-1,-8.148913E-2,2.573686E-1,1.6694593E-1,-6.664469E-2,3.228323E-1,-2.0551689E-1,-3.247972E-1,6.642675E-2,-2.5662032E-1,4.2363712E-1,6.0062204E-2,2.0100592E-2,1.8915819E-1,-6.557073E-2,-5.782866E-1,-1.2887374E-1,8.302829E-2,-5.0978184E-1,-3.94713E-2,1.2613897E-1,-1.0980706E-1,4.3559354E-2,6.1974543E-1,5.4947387E-2,2.6452992E-2,-4.3863617E-2,-1.9806413E-1,-3.75867E-2,2.8823875E-2,-5.93164E-2,-5.3543862E-2,-2.0186022E-1,3.3257507E-2,-4.982275E-2,2.156943E-2,2.002021E-1,9.431953E-2,-6.547214E-2],"categories":[],"categories_nodes":[],"categories_segments":[],"categories_sizes":[],"default_left":[0,0,0,0,0,0,0,0,0,0,0,0,0,0,0,0,0,0,0,0,0,0,0,0,0,0,0,0,0,0,0,0,0,0,0,0,0,0,0,0,0,0,0,0,0,0,0,0,0,0,0],"id":4,"left_children":[1,3,5,7,9,11,13,-1,-1,-1,15,-1,17,19,21,23,-1,25,27,29,31,33,35,-1,-1,-1,37,39,41,-1,43,45,-1,-1,-1,47,49,-1,-1,-1,-1,-1,-1,-1,-1,-1,-1,-1,-1,-1,-1],"loss_changes":[1.0679007E0,1.8865535E0,1.2186397E0,1.05556965E-1,4.0672758E-1,1.1401416E0,1.3627608E0,0E0,0E0,0E0,2.4095336E-1,0E0,1.5820884E0,9.572925E-1,1.9888377E0,1.9828498E-2,0E0,8.779116E-1,8.1115186E-1,1.253878E0,6.5395635E-1,3.1690693E-1,1.1950996E0,0E0,0E0,0E0,6.2486067E-2,1.028465E-1,4.3715936E-1,0E0,3.121519E-1,2.8486466E-1,0E0,0E0,0E0,2.3884249E-1,5.647665E-1,0E0,0E0,0E0,0E0,0E0,0E0,0E0,0E0,0E0,0E0,0E0,0E0,0E0,0E0],"parents":[2147483647,0,0,1,1,2,2,3,3,4,4,5,5,6,6,10,10,12,12,13,13,14,14,15,15,17,17,18,18,19,19,20,20,21,21,22,22,26,26,27,27,28,28,30,30,31,31,35,35,36,36],"right_children":[2,4,6,8,10,12,14,-1,-1,-1,16,-1,18,20,22,24,-1,26,28,30,32,34,36,-1,-1,-1,38,40,42,-1,44,46,-1,-1,-1,48,50,-1,-1,-1,-1,-1,-1,-1,-1,-1,-1,-1,-1,-1,-1],"split_conditions":[-9.9485844E-1,-1.0428251E0,6.825898E-2,9.6727985E-1,-1.6250801E0,-7.4245965E-1,1.9860378E-2,2.5546312E-1,5.7016615E-2,-9.128638E-2,1.7600012E0,-2.2782393E-1,-1.6397262E-2,-4.48808E-1,-1.3380961E0,3.5877022E-1,-6.664469E-2,-4.570839E-2,-1.1507784E0,-1.154652E0,4.4882417E-1,4.0199973E-2,-1.4095206E-3,6.0062204E-2,2.0100592E-2,1.8915819E-1,-2.7129897E-1,2.8452837E-1,3.7538704E-1,8.302829E-2,1.3646998E-1,-4.8069176E-1,1.2613897E-1,-1.0980706E-1,4.3559354E-2,-2.3601823E0,2.5749665E-1,2.6452992E-2,-4.3863617E-2,-1.9806413E-1,-3.75867E-2,2.8823875E-2,-5.93164E-2,-5.3543862E-2,-2.0186022E-1,3.3257507E-2,-4.982275E-2,2.156943E-2,2.002021E-1,9.431953E-2,-6.547214E-2],"split_indices":[3,1,3,2,2,8,2,0,0,0,1,0,8,4,6,5,0,4,7,5,5,0,5,0,0,0,1,0,8,0,7,6,0,0,0,7,2,0,0,0,0,0,0,0,0,0,0,0,0,0,0],"split_type":[0,0,0,0,0,0,0,0,0,0,0,0,0,0,0,0,0,0,0,0,0,0,0,0,0,0,0,0,0,0,0,0,0,0,0,0,0,0,0,0,0,0,0,0,0,0,0,0,0,0,0],"sum_hessian":[1E2,1.6E1,8.4E1,4E0,1.2E1,3.8E1,4.6E1,3E0,1E0,2E0,1E1,2E0,3.6E1,2.5E1,2.1E1,9E0,1E0,6E0,3E1,9E0,1.6E1,5E0,1.6E1,6E0,3E0,3E0,3E0,4E0,2.6E1,2E0,7E0,1.3E1,3E0,4E0,1E0,1E1,6E0,1E0,2E0,3E0,1E0,6E0,2E1,3E0,4E0,6E0,7E0,1E0,9E0,3E0,3E0],"tree_param":{"num_deleted":"0","num_feature":"10","num_nodes":"51","size_leaf_vector":"1"}},{"base_weights":[9.01819E-3,-5.9948854E-2,1.2019526E-1,-1.0800619E-1,2.403958E-1,3.270732E-1,-2.2731494E-2,-1.3972542E-1,2.3713121E-1,1.3008593E-1,-1.0953911E-1,6.813672E-1,4.636005E-2,-1.9148482E-1,6.2240556E-2,-2.1586229E-1,2.5246114E-2,1.1763072E-1,3.1162698E-3,-4.0646233E-3,-4.1105896E-2,2.3096222E-1,2.2548947E-2,1.3208358E-1,-1.976894E-1,1.4467505E-1,-1.8169725E-1,-4.8485067E-2,-5.326282E-1,2.436835E-1,-1.16054595E-1,-2.002634E-2,2.142866E-2,1.8137999E-1,-3.1948697E-2,-1.783434E-2,-7.1125895E-2,-6.008739E-2,2.040233E-1,-1.9820958E-2,-1.1397513E-1,7.041709E-3,-8.048083E-2,-1.9421418E-1,-4.2383473E-2,9.110863E-2,1.8730737E-2,-3.879182E-3,-7.116518E-2,1.794293E-2,6.541384E-2,3.937363E-2,1.1140534E-1],"categories":[],"categories_nodes":[],"categories_segments":[],"categories_sizes":[],"default_left":[0,0,0,0,0,0,0,0,0,0,0,0,0,0,0,0,0,0,0,0,0,0,0,0,0,0,0,0,0,0,0,0,0,0,0,0,0,0,0,0,0,0,0,0,0,0,0,0,0,0,0,0,0],"id":5,"left_children":[1,3,5,7,9,11,13,15,17,-1,19,21,23,-1,25,27,29,-1,31,-1,-1,-1,-1,33,35,37,39,41,43,45,47,-1,-1,49,-1,-1,-1,-1,51,-1,-1,-1,-1,-1,-1,-1,-1,-1,-1,-1,-1,-1,-1],"loss_changes":[7.8162855E-1,9.352913E-1,1.1606021E0,6.352453E-1,6.560406E-1,1.5596917E0,1.2950386E0,6.4603084E-1,1.8010598E-1,0E0,8.695029E-3,3.177061E-1,2.3531932E-1,0E0,4.6868253E-1,1.8298545E0,5.529917E-1,0E0,1.9087346E-2,0E0,0E0,0E0,0E0,1.13405004E-1,2.244614E-3,3.8890776E-1,1.1241679E-1,3.8585976E-1,4.4743967E-1,5.7177693E-2,1.3437518E-1,0E0,0E0,1.8161297E-2,0E0,0E0,0E0,0E0,1.3392842E-1,0E0,0E0,0E0,0E0,0E0,0E0,0E0,0E0,0E0,0E0,0E0,0E0,0E0,0E0],"parents":[2147483647,0,0,1,1,2,2,3,3,4,4,5,5,6,6,7,7,8,8,10,10,11,11,12,12,14,14,15,15,16,16,18,18,23,23,24,24,25,25,26,26,27,27,28,28,29,29,30,30,33,33,38,38],"right_children":[2,4,6,8,10,12,14,16,18,-1,20,22,24,-1,26,28,30,-1,32,-1,-1,-1,-1,34,36,38,40,42,44,46,48,-1,-1,50,-1,-1,-1,-1,52,-1,-1,-1,-1,-1,-1,-1,-1,-1,-1,-1,-1,-1,-1],"split_conditions":[2.8452837E-1,8.5363984E-1,-2.1152641E-1,1.24243E0,-5.651502E-2,-2.3860446E-1,-1.2501968E0,6.5925604E-1,1.369267E-1,1.3008593E-1,-4.3644305E-2,7.9856145E-1,1.1714852E0,-1.9148482E-1,9.9052024E-1,3.1055304E-1,-2.7129897E-1,1.1763072E-1,-1.1267778E0,-4.0646233E-3,-4.1105896E-2,2.3096222E-1,2.2548947E-2,2.1205285E0,5.601173E-1,-1.3727245E0,1.2997135E0,-2.2957817E-1,5.866373E-1,1.2345718E0,1.0920943E0,-2.002634E-2,2.142866E-2,-4.0684694E-1,-3.1948697E-2,-1.783434E-2,-7.1125895E-2,-6.008739E-2,8.440639E-1,-1.9820958E-2,-1.1397513E-1,7.041709E-3,-8.048083E-2,-1.9421418E-1,-4.2383473E-2,9.110863E-2,1.8730737E-2,-3.879182E-3,-7.116518E-2,1.794293E-2,6.541384E-2,3.937363E-2,1.1140534E-1],"split_indices":[0,7,7,4,0,4,8,9,1,0,0,6,1,0,8,9,1,0,0,0,0,0,0,8,0,4,0,0,3,9,9,0,0,9,0,0,0,0,2,0,0,0,0,0,0,0,0,0,0,0,0,0,0],"split_type":[0,0,0,0,0,0,0,0,0,0,0,0,0,0,0,0,0,0,0,0,0,0,0,0,0,0,0,0,0,0,0,0,0,0,0,0,0,0,0,0,0,0,0,0,0,0,0,0,0,0,0,0,0],"sum_hessian":[1E2,6.2E1,3.8E1,5.4E1,8E0,1.5E1,2.3E1,5E1,4E0,5E0,3E0,6E0,9E0,2E0,2.1E1,3.4E1,1.6E1,2E0,2E0,1E0,2E0,5E0,1E0,7E0,2E0,1.6E1,5E0,2.3E1,1.1E1,6E0,1E1,1E0,1E0,6E0,1E0,1E0,1E0,2E0,1.4E1,4E0,1E0,1.8E1,5E0,8E0,3E0,4E0,2E0,6E0,4E0,2E0,4E0,1.1E1,3E0],"tree_param":{"num_deleted":"0","num_feature":"10","num_nodes":"53","size_leaf_vector":"1"}},{"base_weights":[5.422398E-3,-1.3781285E-1,3.6051113E-2,-1.7959464E-1,-7.549022E-2,-5.046124E-2,1.0861482E-1,8.592776E-3,-2.7900797E-1,-8.0888264E-2,1.6586488E-1,3.9149246E-1,6.456895E-2,9.649015E-2,-2.1329886E-1,-1.24959044E-1,-4.2148467E-2,-2.4106836E-2,-3.2890505E-1,1.2823597E-1,3.1753317E-2,5.814214E-5,3.3066878E-1,1.8500112E-1,-8.252658E-2,-9.1000825E-2,8.521933E-3,-1.5779757E-1,7.5670905E-2,-9.499742E-2,-1.4417593E-1,7.147219E-2,-7.556015E-2,3.9343688E-1,-1.6306205E-2,-3.454929E-3,6.590203E-2,2.8014511E-3,-3.487827E-2,-8.953663E-2,7.6490296E-3,-6.4777605E-2,5.034748E-2,-8.281732E-3,-4.4575855E-2,-4.903886E-2,3.3316653E-2,8.443197E-3,-5.87236E-2,3.0855972E-2,1.274176E-1],"categories":[],"categories_nodes":[],"categories_segments":[],"categories_sizes":[],"default_left":[0,0,0,0,0,0,0,0,0,0,0,0,0,0,0,0,0,0,0,0,0,0,0,0,0,0,0,0,0,0,0,0,0,0,0,0,0,0,0,0,0,0,0,0,0,0,0,0,0,0,0],"id":6,"left_children":[1,3,5,-1,7,9,11,13,15,17,-1,19,21,23,25,-1,-1,27,29,-1,-1,31,33,35,37,-1,-1,39,41,43,-1,45,47,49,-1,-1,-1,-1,-1,-1,-1,-1,-1,-1,-1,-1,-1,-1,-1,-1,-1],"loss_changes":[4.4806656E-1,4.7177702E-1,5.32804E-1,0E0,2.9330796E-1,7.606825E-1,5.47863E-1,2.741292E-1,3.672272E-2,5.272156E-1,0E0,1.6389132E-2,7.037997E-1,1.7371696E-1,9.56666E-2,0E0,0E0,4.3880016E-1,2.0270151E-1,0E0,0E0,1.8900754E-1,2.147221E-1,5.0225943E-2,1.3481639E-2,0E0,0E0,3.6855462E-1,5.468012E-1,1.0343906E-2,0E0,1.8554458E-1,2.1739192E-1,1.9958973E-2,0E0,0E0,0E0,0E0,0E0,0E0,0E0,0E0,0E0,0E0,0E0,0E0,0E0,0E0,0E0,0E0,0E0],"parents":[2147483647,0,0,1,1,2,2,4,4,5,5,6,6,7,7,8,8,9,9,11,11,12,12,13,13,14,14,17,17,18,18,21,21,22,22,23,23,24,24,27,27,28,28,29,29,31,31,32,32,33,33],"right_children":[2,4,6,-1,8,10,12,14,16,18,-1,20,22,24,26,-1,-1,28,30,-1,-1,32,34,36,38,-1,-1,40,42,44,-1,46,48,50,-1,-1,-1,-1,-1,-1,-1,-1,-1,-1,-1,-1,-1,-1,-1,-1,-1],"split_conditions":[-1.2970289E0,-1.7877426E0,-3.4127992E-1,-1.7959464E-1,5.305672E-1,1.9400123E0,-2.0519651E-1,7.229468E-1,-5.4200315E-1,6.762018E-1,1.6586488E-1,6.013669E-1,8.8371015E-1,4.3554775E-2,-1.9316904E-1,-1.24959044E-1,-4.2148467E-2,-5.916898E-1,-6.2581265E-1,1.2823597E-1,3.1753317E-2,4.853154E-2,1.9747683E0,-5.036737E-1,-1.3282241E0,-9.1000825E-2,8.521933E-3,2.5190689E-2,-2.4537341E-1,-7.501785E-2,-1.4417593E-1,-1.1129391E-2,-1.7716606E-1,-1.4260349E0,-1.6306205E-2,-3.454929E-3,6.590203E-2,2.8014511E-3,-3.487827E-2,-8.953663E-2,7.6490296E-3,-6.4777605E-2,5.034748E-2,-8.281732E-3,-4.4575855E-2,-4.903886E-2,3.3316653E-2,8.443197E-3,-5.87236E-2,3.0855972E-2,1.274176E-1],"split_indices":[6,0,4,0,5,0,4,3,1,2,0,0,2,4,0,0,0,2,4,0,0,1,2,1,1,0,0,1,6,0,0,4,9,0,0,0,0,0,0,0,0,0,0,0,0,0,0,0,0,0,0],"split_type":[0,0,0,0,0,0,0,0,0,0,0,0,0,0,0,0,0,0,0,0,0,0,0,0,0,0,0,0,0,0,0,0,0,0,0,0,0,0,0,0,0,0,0,0,0,0,0,0,0,0,0],"sum_hessian":[1E2,1.7E1,8.3E1,1E0,1.6E1,3.8E1,4.5E1,1.2E1,4E0,3.7E1,1E0,5E0,4E1,9E0,3E0,1E0,3E0,3.1E1,6E0,4E0,1E0,3.3E1,7E0,6E0,3E0,2E0,1E0,1.3E1,1.8E1,3E0,3E0,1.7E1,1.6E1,6E0,1E0,1E0,5E0,1E0,2E0,7E0,6E0,4E0,1.4E1,2E0,1E0,2E0,1.5E1,9E0,7E0,1E0,5E0],"tree_param":{"num_deleted":"0","num_feature":"10","num_nodes":"51","size_leaf_vector":"1"}},{"base_weights":[9.2099915E-4,-4.3420367E-2,7.252575E-2,-7.353777E-2,1.454549E-1,2.1621087E-1,-2.6286248E-2,-9.696618E-3,-1.6885874E-1,8.119069E-2,-7.867995E-2,4.4238853E-1,3.626542E-2,-1.322925E-1,3.1457044E-2,-7.453913E-2,1.5337932E-1,1.04549944E-1,-2.1753116E-1,-2.9366894E-3,-2.9514188E-2,1.6944602E-1,2.7261944E-2,-3.0246042E-2,6.0462255E-2,1.0394588E-1,-1.387256E-1,-1.04871556E-1,1.8285586E-1,1.91723E-1,-2.8757079E-2,3.7863348E-2,5.934953E-3,-2.7724066E-1,5.103576E-3,8.03483E-2,-1.1267231E-1,1.4501539E-1,-3.670814E-2,-7.522009E-2,-4.377563E-2,1.6866598E-2,-4.2523514E-2,6.5337256E-2,1.6947882E-2,3.034813E-3,7.264967E-2,-1.7057726E-1,-4.7106165E-2,3.1256307E-2,-2.8704518E-2,7.2436454E-3,2.7310224E-2,-5.3380895E-2,-2.9552581E-3,5.9630506E-2,2.5519216E-3,-1.9141667E-2,-2.74615E-3],"categories":[],"categories_nodes":[],"categories_segments":[],"categories_sizes":[],"default_left":[0,0,0,0,0,0,0,0,0,0,0,0,0,0,0,0,0,0,0,0,0,0,0,0,0,0,0,0,0,0,0,0,0,0,0,0,0,0,0,0,0,0,0,0,0,0,0,0,0,0,0,0,0,0,0,0,0,0,0],"id":7,"left_children":[1,3,5,7,9,11,13,15,17,-1,19,21,23,-1,25,27,29,31,33,-1,-1,-1,-1,35,-1,37,39,41,43,45,-1,-1,-1,47,49,51,53,55,-1,-1,57,-1,-1,-1,-1,-1,-1,-1,-1,-1,-1,-1,-1,-1,-1,-1,-1,-1,-1],"loss_changes":[3.2382935E-1,3.6906767E-1,5.593982E-1,3.3305964E-1,2.738099E-1,6.3515097E-1,5.885637E-1,3.7095737E-1,3.1550705E-1,0E0,4.4657513E-3,2.4992907E-1,1.16022915E-1,0E0,2.8581947E-1,2.1436174E-1,1.1394435E-1,4.8477426E-3,2.5398964E-1,0E0,0E0,0E0,0E0,8.198005E-2,0E0,1.664528E-1,6.347011E-2,1.4459103E-1,9.3981624E-4,7.9996765E-2,0E0,0E0,0E0,4.361118E-1,5.989997E-2,2.0422228E-4,3.1799868E-2,1.0103786E-1,0E0,0E0,2.8832946E-3,0E0,0E0,0E0,0E0,0E0,0E0,0E0,0E0,0E0,0E0,0E0,0E0,0E0,0E0,0E0,0E0,0E0,0E0],"parents":[2147483647,0,0,1,1,2,2,3,3,4,4,5,5,6,6,7,7,8,8,10,10,11,11,12,12,14,14,15,15,16,16,17,17,18,18,23,23,25,25,26,26,27,27,28,28,29,29,33,33,34,34,35,35,36,36,37,37,40,40],"right_children":[2,4,6,8,10,12,14,16,18,-1,20,22,24,-1,26,28,30,32,34,-1,-1,-1,-1,36,-1,38,40,42,44,46,-1,-1,-1,48,50,52,54,56,-1,-1,58,-1,-1,-1,-1,-1,-1,-1,-1,-1,-1,-1,-1,-1,-1,-1,-1,-1,-1],"split_conditions":[2.8452837E-1,8.5363984E-1,-2.1152641E-1,9.0433985E-2,-5.651502E-2,-2.3860446E-1,-1.2501968E0,-4.5023334E-1,-9.6444416E-1,8.119069E-2,-4.3644305E-2,1.6962175E-1,1.0410898E0,-1.322925E-1,7.297241E-1,1.1938592E0,2.7403352E-1,-3.106835E-1,9.0000975E-1,-2.9366894E-3,-2.9514188E-2,1.6944602E-1,2.7261944E-2,2.7314955E-1,6.0462255E-2,1.8106695E0,-6.7688674E-1,-1.0979291E0,-1.2763521E-1,-9.685423E-1,-2.8757079E-2,3.7863348E-2,5.934953E-3,-1.2970289E0,-3.8027284E-1,-3.6885157E-1,4.2938325E-1,5.0410664E-1,-3.670814E-2,-7.522009E-2,4.5672622E-1,1.6866598E-2,-4.2523514E-2,6.5337256E-2,1.6947882E-2,3.034813E-3,7.264967E-2,-1.7057726E-1,-4.7106165E-2,3.1256307E-2,-2.8704518E-2,7.2436454E-3,2.7310224E-2,-5.3380895E-2,-2.9552581E-3,5.9630506E-2,2.5519216E-3,-1.9141667E-2,-2.74615E-3],"split_indices":[0,7,7,8,0,4,8,8,3,0,0,9,9,0,9,4,5,0,1,0,0,0,0,8,0,0,4,5,0,6,0,0,0,6,0,1,4,1,0,0,0,0,0,0,0,0,0,0,0,0,0,0,0,0,0,0,0,0,0],"split_type":[0,0,0,0,0,0,0,0,0,0,0,0,0,0,0,0,0,0,0,0,0,0,0,0,0,0,0,0,0,0,0,0,0,0,0,0,0,0,0,0,0,0,0,0,0,0,0,0,0,0,0,0,0,0,0,0,0,0,0],"sum_hessian":[1E2,6.2E1,3.8E1,5.4E1,8E0,1.5E1,2.3E1,3.3E1,2.1E1,5E0,3E0,6E0,9E0,2E0,2.1E1,2.4E1,9E0,3E0,1.8E1,1E0,2E0,4E0,2E0,7E0,2E0,1.5E1,6E0,2.2E1,2E0,8E0,1E0,2E0,1E0,1.4E1,4E0,3E0,4E0,1.3E1,2E0,2E0,4E0,4E0,1.8E1,1E0,1E0,2E0,6E0,3E0,1.1E1,2E0,2E0,1E0,2E0,2E0,2E0,9E0,4E0,2E0,2E0],"tree_param":{"num_deleted":"0","num_feature":"10","num_nodes":"59","size_leaf_vector":"1"}},{"base_weights":[7.677053E-4,9.854313E-2,-1.8796412E-2,3.358158E-1,-2.9582245E-4,-8.6707294E-2,2.817765E-2,1.1690805E-1,1.8045742E-2,-4.2204235E-2,3.8017873E-2,-1.0967735E-1,-5.8726717E-2,-2.1125076E-2,8.911684E-2,-4.6480753E-2,9.294291E-2,1.13628544E-1,-1.0123635E-1,-5.264984E-2,1.4072376E-1,-1.00098945E-1,1.4723784E-1,-8.611485E-2,8.646935E-3,5.04471E-3,3.084845E-2,8.76092E-2,-1.6138434E-2,-3.1235433E-1,-5.093956E-2,-1.1775368E-2,-2.6429698E-1,4.826099E-2,9.020842E-3,-1.3650475E-1,1.2289516E-2,2.2068907E-1,2.7837666E-2,-3.151095E-2,-7.2407355E-3,4.946235E-3,-1.055114E-3,1.1886305E-2,-1.9955521E-2,3.1043008E-2,-1.3265437E-1,-2.6396392E-3,-3.8656097E-2,-5.1490355E-2,3.8376814E-3,-1.4875532E-4,-1.0561963E-1,-5.1490586E-2,-1.6761793E-2,7.336767E-2,-2.7013868E-3,4.4396803E-2,-2.215536E-2],"categories":[],"categories_nodes":[],"categories_segments":[],"categories_sizes":[],"default_left":[0,0,0,0,0,0,0,0,0,0,0,0,0,0,0,0,0,0,0,0,0,0,0,0,0,0,0,0,0,0,0,0,0,0,0,0,0,0,0,0,0,0,0,0,0,0,0,0,0,0,0,0,0,0,0,0,0,0,0],"id":8,"left_children":[1,3,5,7,9,11,13,-1,-1,-1,15,-1,17,19,21,23,25,27,29,31,33,35,37,39,41,-1,-1,-1,43,45,47,49,51,-1,-1,53,-1,55,57,-1,-1,-1,-1,-1,-1,-1,-1,-1,-1,-1,-1,-1,-1,-1,-1,-1,-1,-1,-1],"loss_changes":[1.9505414E-1,3.9877963E-1,2.7359745E-1,5.0819576E-2,7.527105E-2,2.516466E-1,1.5511048E-1,0E0,0E0,0E0,5.537205E-2,0E0,2.5328636E-1,1.5537423E-1,2.676788E-1,1.1669314E-2,3.5386346E-3,1.6676785E-1,2.7078983E-1,2.1316195E-1,6.30904E-3,3.640522E-2,1.5171814E-1,9.831004E-4,3.4410274E-4,0E0,0E0,0E0,1.6681325E-2,3.1568578E-1,7.43835E-2,8.859755E-2,9.2439026E-2,0E0,0E0,4.573524E-3,0E0,6.251246E-2,1.0867387E-1,0E0,0E0,0E0,0E0,0E0,0E0,0E0,0E0,0E0,0E0,0E0,0E0,0E0,0E0,0E0,0E0,0E0,0E0,0E0,0E0],"parents":[2147483647,0,0,1,1,2,2,3,3,4,4,5,5,6,6,10,10,12,12,13,13,14,14,15,15,16,16,17,17,18,18,19,19,20,20,21,21,22,22,23,23,24,24,28,28,29,29,30,30,31,31,32,32,35,35,37,37,38,38],"right_children":[2,4,6,8,10,12,14,-1,-1,-1,16,-1,18,20,22,24,26,28,30,32,34,36,38,40,42,-1,-1,-1,44,46,48,50,52,-1,-1,54,-1,56,58,-1,-1,-1,-1,-1,-1,-1,-1,-1,-1,-1,-1,-1,-1,-1,-1,-1,-1,-1,-1],"split_conditions":[-9.9485844E-1,-1.0428251E0,5.204232E-3,9.6727985E-1,-1.6250801E0,-7.4245965E-1,1.9860378E-2,1.1690805E-1,1.8045742E-2,-4.2204235E-2,-6.1962664E-1,-1.0967735E-1,-1.6397262E-2,1.3290635E0,-1.3380961E0,-6.4835113E-1,-4.4631255E-1,-2.0519651E-1,-7.6317155E-1,7.0988125E-1,7.873947E-1,4.0199973E-2,-1.4095206E-3,1.3022672E-1,-2.2957817E-1,5.04471E-3,3.084845E-2,8.76092E-2,4.8133254E-1,-1.8694707E0,-2.287075E-1,-1.6393793E0,-3.7572744E-1,4.826099E-2,9.020842E-3,-2.68718E-1,1.2289516E-2,1.4371735E0,2.5749665E-1,-3.151095E-2,-7.2407355E-3,4.946235E-3,-1.055114E-3,1.1886305E-2,-1.9955521E-2,3.1043008E-2,-1.3265437E-1,-2.6396392E-3,-3.8656097E-2,-5.1490355E-2,3.8376814E-3,-1.4875532E-4,-1.0561963E-1,-5.1490586E-2,-1.6761793E-2,7.336767E-2,-2.7013868E-3,4.4396803E-2,-2.215536E-2],"split_indices":[3,1,3,2,2,8,2,0,0,0,4,0,8,7,6,8,4,4,0,7,0,0,5,0,0,0,0,0,4,0,3,8,0,0,0,5,0,3,2,0,0,0,0,0,0,0,0,0,0,0,0,0,0,0,0,0,0,0,0],"split_type":[0,0,0,0,0,0,0,0,0,0,0,0,0,0,0,0,0,0,0,0,0,0,0,0,0,0,0,0,0,0,0,0,0,0,0,0,0,0,0,0,0,0,0,0,0,0,0,0,0,0,0,0,0,0,0,0,0,0,0],"sum_hessian":[1E2,1.6E1,8.4E1,4E0,1.2E1,3.4E1,5E1,3E0,1E0,2E0,1E1,2E0,3.2E1,2.8E1,2.2E1,4E0,6E0,6E0,2.6E1,2.4E1,4E0,5E0,1.7E1,2E0,2E0,1E0,5E0,2E0,4E0,4E0,2.2E1,2.1E1,3E0,3E0,1E0,4E0,1E0,1E1,7E0,1E0,1E0,1E0,1E0,2E0,2E0,1E0,3E0,1.5E1,7E0,2E0,1.9E1,1E0,2E0,2E0,2E0,9E0,1E0,3E0,4E0],"tree_param":{"num_deleted":"0","num_feature":"10","num_nodes":"59","size_leaf_vector":"1"}},{"base_weights":[-8.334681E-4,-2.763585E-2,4.2484056E-2,-4.580633E-2,8.647663E-2,1.404921E-1,-2.46248E-2,-6.9010775E-3,-1.0385053E-1,1.6528125E-1,-5.334945E-2,3.275678E-1,5.0836217E-2,3.6218826E-2,-2.1319215E-1,-1.9180182E-1,1.71797E-2,7.582113E-2,-1.3621032E-1,6.1923083E-2,1.660464E-2,-2.1002414E-3,-1.993962E-2,1.4183992E-2,1.15745924E-1,7.807023E-2,-3.73107E-2,-1.9058987E-2,7.8153506E-2,-1.1197663E-1,-3.9846648E-2,-6.783115E-2,-1.3334375E-2,-4.375963E-2,3.345403E-2,2.7469786E-2,4.288003E-3,3.556359E-2,-1.5694927E-1,2.3049216E-3,1.4082384E-1,1.7159754E-2,-3.5741158E-2,1.1058042E-1,-1.3553523E-2,2.0321488E-2,-2.9486319E-2,2.1853538E-2,-1.460207E-2,-1.0843743E-1,-2.7585087E-2,1.4432496E-2,-9.787157E-3,5.5071365E-2,1.1065824E-2,-1.7513314E-2,4.4694767E-4,4.4127945E-2,8.449869E-3],"categories":[],"categories_nodes":[],"categories_segments":[],"categories_sizes":[],"default_left":[0,0,0,0,0,0,0,0,0,0,0,0,0,0,0,0,0,0,0,0,0,0,0,0,0,0,0,0,0,0,0,0,0,0,0,0,0,0,0,0,0,0,0,0,0,0,0,0,0,0,0,0,0,0,0,0,0,0,0],"id":9,"left_children":[1,3,5,7,9,11,13,15,17,19,21,23,25,27,29,31,33,35,37,-1,-1,-1,-1,-1,-1,39,-1,41,43,-1,45,-1,-1,-1,47,-1,-1,-1,49,51,53,-1,55,57,-1,-1,-1,-1,-1,-1,-1,-1,-1,-1,-1,-1,-1,-1,-1],"loss_changes":[1.1843638E-1,1.3459033E-1,2.5997066E-1,1.2348565E-1,1.07988134E-1,2.517067E-1,2.8307652E-1,1.546819E-1,1.3823867E-1,1.5703931E-2,1.9663144E-3,6.3394964E-2,6.6968024E-2,4.553262E-2,1.5160453E-1,1.0168299E-2,8.713676E-2,2.5661923E-3,1.1898947E-1,0E0,0E0,0E0,0E0,0E0,0E0,5.197542E-2,0E0,1.349373E-2,4.8987858E-2,0E0,3.1807367E-2,0E0,0E0,0E0,9.736341E-2,0E0,0E0,0E0,2.0603535E-1,1.1168619E-2,1.9887164E-2,0E0,6.8292227E-3,2.2939444E-2,0E0,0E0,0E0,0E0,0E0,0E0,0E0,0E0,0E0,0E0,0E0,0E0,0E0,0E0,0E0],"parents":[2147483647,0,0,1,1,2,2,3,3,4,4,5,5,6,6,7,7,8,8,9,9,10,10,11,11,12,12,13,13,14,14,15,15,16,16,17,17,18,18,25,25,27,27,28,28,30,30,34,34,38,38,39,39,40,40,42,42,43,43],"right_children":[2,4,6,8,10,12,14,16,18,20,22,24,26,28,30,32,34,36,38,-1,-1,-1,-1,-1,-1,40,-1,42,44,-1,46,-1,-1,-1,48,-1,-1,-1,50,52,54,-1,56,58,-1,-1,-1,-1,-1,-1,-1,-1,-1,-1,-1,-1,-1,-1,-1],"split_conditions":[2.8452837E-1,8.5363984E-1,-2.1152641E-1,9.0433985E-2,-5.651502E-2,-5.640048E-1,1.4319396E0,-1.5777982E0,-9.6444416E-1,-1.4045638E-1,-4.3644305E-2,-1.9556122E0,1.0950319E0,-4.48808E-1,1.7363815E0,-3.5169885E-1,-1.3888562E0,-3.106835E-1,-1.7183564E0,6.1923083E-2,1.660464E-2,-2.1002414E-3,-1.993962E-2,1.4183992E-2,1.15745924E-1,5.601173E-1,-3.73107E-2,-2.0941877E0,9.9052024E-1,-1.1197663E-1,1.8106695E0,-6.783115E-2,-1.3334375E-2,-4.375963E-2,3.41302E-1,2.7469786E-2,4.288003E-3,3.556359E-2,-1.2970289E0,-6.950632E-1,5.320829E-1,1.7159754E-2,7.01891E-1,4.3762606E-1,-1.3553523E-2,2.0321488E-2,-2.9486319E-2,2.1853538E-2,-1.460207E-2,-1.0843743E-1,-2.7585087E-2,1.4432496E-2,-9.787157E-3,5.5071365E-2,1.1065824E-2,-1.7513314E-2,4.4694767E-4,4.4127945E-2,8.449869E-3],"split_indices":[0,7,7,8,0,4,0,2,3,1,0,4,0,4,0,0,7,0,9,0,0,0,0,0,0,0,0,2,8,0,0,0,0,0,5,0,0,0,6,3,6,0,5,3,0,0,0,0,0,0,0,0,0,0,0,0,0,0,0],"split_type":[0,0,0,0,0,0,0,0,0,0,0,0,0,0,0,0,0,0,0,0,0,0,0,0,0,0,0,0,0,0,0,0,0,0,0,0,0,0,0,0,0,0,0,0,0,0,0,0,0,0,0,0,0,0,0,0,0,0,0],"sum_hessian":[1E2,6.2E1,3.8E1,5.4E1,8E0,1.5E1,2.3E1,3.3E1,2.1E1,5E0,3E0,4E0,1.1E1,1.8E1,5E0,3E0,3E1,3E0,1.8E1,3E0,2E0,1E0,2E0,1E0,3E0,1E1,1E0,8E0,1E1,2E0,3E0,2E0,1E0,2E0,2.8E1,2E0,1E0,1E0,1.7E1,5E0,5E0,1E0,7E0,8E0,2E0,1E0,2E0,1.9E1,9E0,3E0,1.4E1,2E0,3E0,3E0,2E0,4E0,3E0,5E0,3E0],"tree_param":{"num_deleted":"0","num_feature":"10","num_nodes":"59","size_leaf_vector":"1"}}]},"name":"gbtree"},"learner_model_param":{"base_score":"1.0708075E-1","boost_from_average":"1","num_class":"0","num_feature":"10","num_target":"1"},"objective":{"name":"reg:squarederror","reg_loss_param":{"scale_pos_weight":"1"}}},"version":[2,1,2]}